Id,SalePrice
1461,-0.9923917747394653
1462,-0.28035359321837744
1463,0.11898740957035955
1464,0.2696174225138347
1465,0.2632966873497101
1466,0.01716189507860591
1467,-0.050393497534257814
1468,-0.0909142636629654
1469,0.2075866350754406
1470,-1.0647942708479288
1471,0.06913301918297096
1472,-1.4559788142304
1473,-1.4651494181051752
1474,-0.4206792877908368
1475,-1.0025959152793698
1476,1.6024027603245652
1477,0.9169569685813297
1478,1.2665023004224798
1479,1.2446746631693344
1480,2.1761067234304194
1481,1.6473305614982827
1482,0.5010629530192932
1483,0.08434807941644339
1484,-0.14056200601790597
1485,0.2379245883016004
1486,0.27227923400176923
1487,1.409857264260181
1488,0.6632618008998523
1489,0.22223346091126367
1490,0.5988496011551511
1491,0.25835017367593244
1492,-1.4002703506407783
1493,0.17053413167738807
1494,1.3178615848015969
1495,1.1465866994859795
1496,0.5980133098632392
1497,0.05777410269227461
1498,-0.13180142204650236
1499,-0.17878504182141072
1500,-0.23544771194672426
1501,0.08452334174980039
1502,-0.35143899107495924
1503,1.0675016197155438
1504,0.8312113426872514
1505,0.6092710132912845
1506,0.15955393992561506
1507,0.7239231885005565
1508,0.3941487260937514
1509,-0.1378196408657355
1510,-0.37485122440635704
1511,-0.3565608207166154
1512,-0.06509889846493286
1513,-0.5198833848309901
1514,-0.2721872065452127
1515,0.1761404706205946
1516,-0.15930319564163598
1517,-0.1727400289728942
1518,-0.7456733221241458
1519,0.38814232843934826
1520,-0.7165756125765368
1521,-0.7471509948684348
1522,0.009299449066026498
1523,-1.1126357580325879
1524,-0.8328357638959841
1525,-0.8963068201738901
1526,-1.013548722411212
1527,-1.2209659668884885
1528,-0.5289966219097636
1529,-0.3703262287047984
1530,0.042455573242653755
1531,-1.0693876039035528
1532,-1.3704385119947122
1533,-0.3904045189581077
1534,-0.8910446796660858
1535,-0.28698039021760824
1536,-1.0511057129890509
1537,-2.412707190781945
1538,-0.07682501129469232
1539,0.39146792018560794
1540,-1.3025495178712494
1541,-0.418794534667085
1542,-0.5906090499421991
1543,0.37959705034642427
1544,-1.784898913670434
1545,-1.0006655651997765
1546,-0.5303755122315055
1547,-0.6545159089278235
1548,-0.5305932180411994
1549,-0.9971788062047866
1550,-0.5202633995243324
1551,-1.221297265009611
1552,-0.5769095317766895
1553,-0.3833835952270502
1554,-0.889516821786164
1555,-0.05173262037351535
1556,-1.5646707871553
1557,-1.015805263609268
1558,-1.5232113430625178
1559,-1.6272565578182259
1560,-0.49112310607425513
1561,-0.6959575886382217
1562,-0.7478960194586668
1563,-1.0105250584353695
1564,-0.2565287876812593
1565,-0.3853717327976204
1566,0.6777160714550434
1567,-2.039612326101049
1568,0.6922726578051124
1569,-0.6598861690233522
1570,-0.6254202545225744
1571,-0.9241058286052904
1572,-0.5753187515196927
1573,0.458354337933995
1574,-0.8734150901526468
1575,0.5144874448039161
1576,0.8069764582549698
1577,0.16554893839328294
1578,-0.3458031445584147
1579,-0.4045297748061781
1580,0.23828006934668622
1581,-0.29635090530913205
1582,-0.7850986901891045
1583,1.2889286481565423
1584,0.5237774554844632
1585,-0.5417454607263928
1586,-2.1160246817892916
1587,-1.394447863846132
1588,-0.40448675531098743
1589,-1.4278397245366234
1590,-0.685062429285894
1591,-1.4944012620436848
1592,-0.9945909812700058
1593,-0.839853090056702
1594,-0.4705128890546283
1595,-0.9175476040279568
1596,0.591065665913691
1597,0.18410008853766419
1598,0.6261024893067308
1599,0.0393053107865972
1600,-0.04261392442106728
1601,-2.530736639943978
1602,-1.249599801586711
1603,-1.8374983585375706
1604,0.9532149910943746
1605,0.910792887789314
1606,-0.05943730504329681
1607,-0.0430820024235266
1608,0.5639516705238838
1609,0.07681589577740211
1610,-0.29715553570117453
1611,-0.5357334336055121
1612,-0.08322081669848072
1613,-0.17721528780659346
1614,-0.8614834009643142
1615,-1.6121261048247777
1616,-1.8614507391600243
1617,-1.559281668433368
1618,-0.8658185991134983
1619,-0.5343719505807868
1620,-0.4159206806834236
1621,-0.6929956794042338
1622,-0.48638300314537064
1623,1.0338641361117604
1624,0.4747602287421586
1625,-1.0418415375731493
1626,-0.07836296584710876
1627,0.18690159463233902
1628,1.1346842939024566
1629,0.12225405296081278
1630,1.5325452482887945
1631,0.6914638306790472
1632,0.8988346951981567
1633,-0.004939668405985906
1634,0.1818177804077033
1635,0.1024222079596454
1636,-0.2850165604361934
1637,0.2682446845893169
1638,0.3026717957072437
1639,0.1088629854238127
1640,0.8527623824830931
1641,0.03303679866349772
1642,0.7616169608781759
1643,0.6269417828980983
1644,0.7973703505388439
1645,0.2014385782959313
1646,-0.24982229140395543
1647,-0.2853671620642566
1648,-0.73124781448317
1649,-0.5070144867592917
1650,-1.159242233398241
1651,-0.9692524549198336
1652,-1.3489931274612692
1653,-1.2472371518635192
1654,-0.3886463392567069
1655,-0.6026555629094702
1656,-0.48246501341978576
1657,-0.34002862266342765
1658,-0.4363604837099736
1659,-0.9123925440691496
1660,-0.39833555608464
1661,1.967231630565077
1662,1.9111504228937504
1663,1.7643279111804473
1664,2.286200129355406
1665,1.2814441083250827
1666,1.4530044629976737
1667,1.665558226961943
1668,1.4767618467006227
1669,1.3612458770664086
1670,1.5390654057075717
1671,0.9665385486314817
1672,1.9779448275878493
1673,1.309262484306786
1674,0.8260775043213122
1675,0.23812163309888387
1676,0.24903643413040177
1677,0.5206333246330306
1678,2.1062534559210824
1679,1.8549965227233116
1680,1.4228346087015815
1681,0.7788228764805927
1682,1.4268202216008903
1683,0.14505790289935094
1684,0.012188866338748125
1685,0.019239877950105663
1686,-0.04181184948142422
1687,0.014193100411700429
1688,0.18614619629599208
1689,0.24805910991523986
1690,0.32341361736971597
1691,0.14601629525845616
1692,1.0261679108963089
1693,-0.043827264098777435
1694,0.1426502090334587
1695,-0.09175367837606689
1696,1.0805821373733155
1697,-0.023535814798230803
1698,1.5949683040216167
1699,1.4045644168565536
1700,0.8139708424156078
1701,1.0490551568067814
1702,0.7540296678649855
1703,0.8022665139050358
1704,1.0911945122110709
1705,0.697613184450457
1706,1.5316898743153082
1707,0.4525737105443669
1708,0.34747981963875174
1709,1.0819158894020142
1710,0.6356022991029708
1711,1.1002771928811959
1712,0.9118695758403829
1713,0.8967373708768135
1714,0.5861669774257627
1715,0.46438783558404584
1716,0.17633448860804407
1717,0.06776623581234781
1718,-0.5563293128580443
1719,0.4428581168762442
1720,0.7950979639136476
1721,-0.19921719633572182
1722,-0.7807534729100869
1723,-0.311410788053519
1724,0.3120757843858686
1725,0.672536897261991
1726,0.25600773723032244
1727,-0.24088818589396044
1728,0.12340348186879506
1729,-0.0598957059305099
1730,-0.11103580563341808
1731,-0.9266228179577544
1732,-0.8208252211248149
1733,-1.278466905659268
1734,-1.0022187558017017
1735,-0.7606780222278775
1736,-1.180738882775257
1737,1.3995960553806808
1738,0.73606681937316
1739,0.7492311895311531
1740,0.3572372864247345
1741,0.13587182350823068
1742,0.012433701089309766
1743,0.06150217906087803
1744,1.3532496370851885
1745,0.5961992639635534
1746,0.28604444310562577
1747,0.5146283383348529
1748,0.47805005409438867
1749,-0.35983085932844433
1750,-0.7754215926064614
1751,0.7332755019714435
1752,-1.069667513444501
1753,-0.4899124209278373
1754,0.18280956600146508
1755,-0.1203503071218698
1756,-0.8563155539666445
1757,-0.9882413806934814
1758,-0.47350379444576635
1759,-0.0939676174249984
1760,-0.24327908560349135
1761,-0.41668598832142917
1762,-0.10429679724363192
1763,0.14628132864850427
1764,-0.949111205114438
1765,-0.11871367209279364
1766,0.03560413492160079
1767,0.49677046686685905
1768,-0.5522703004906423
1769,-0.0545410560481891
1770,-0.3602125260536184
1771,-0.8626697865208082
1772,-0.5580459502028925
1773,-0.7869840510482263
1774,-0.5855283128745955
1775,-0.48205479327697487
1776,-0.8594714616906012
1777,-1.158393327864537
1778,-0.6539694922597689
1779,-0.8374095903478734
1780,0.03399463258910479
1781,-0.8138031671569981
1782,-1.8152183912769018
1783,-0.5928216681434695
1784,-1.1372972865876336
1785,-0.9947063746354045
1786,-0.436785626710109
1787,-0.18252502234819862
1788,-2.630441475999019
1789,-1.433777282659859
1790,-1.9906516499906246
1791,0.14218412393438265
1792,-0.29200604211538433
1793,-0.6857006362114535
1794,-0.3223874778161487
1795,-0.6481585167241269
1796,-0.7076404023189486
1797,-1.1108611933065042
1798,-0.8269710398479008
1799,-1.238713558036696
1800,-0.7181296218489183
1801,-0.7477060761078325
1802,-0.47110028383617664
1803,-0.4887487462516469
1804,-0.4898861511084532
1805,-0.6536799421285524
1806,-0.7579421716485657
1807,-0.4961898787676827
1808,-0.7416582764282527
1809,-0.7088523965866111
1810,-0.5842143647441107
1811,-1.456623526039723
1812,-1.2816431797900782
1813,-0.8419117030307877
1814,-1.5252812942504868
1815,-2.509287264277704
1816,-1.4105087429649514
1817,-1.0851036050198237
1818,-0.3728417652415679
1819,-0.7288389703539231
1820,-2.3636837509426494
1821,-1.0669221652796177
1822,-0.32420034209247195
1823,-2.704305327967783
1824,-0.6382066319027422
1825,-0.46137428202988445
1826,-1.3323882604655648
1827,-1.294358258692072
1828,-0.583861550268435
1829,-0.7331006232386389
1830,-0.5138105331917502
1831,-0.2460280222070437
1832,-1.7170162925077948
1833,-0.55712914619766
1834,-0.8316942344148888
1835,-0.7144785587294715
1836,-0.8222625742530247
1837,-1.5820634975147145
1838,-0.584423108079845
1839,-1.610256518303502
1840,-0.4417783967757528
1841,-0.5441633366615262
1842,-1.7082888641668124
1843,-0.7694605632123233
1844,-0.6633111504818339
1845,-0.38053510886654063
1846,-0.38315811831421015
1847,-0.04273153315243806
1848,-2.730357510416021
1849,-0.9827994303305686
1850,-0.9007685687744059
1851,-0.3423174234051963
1852,-0.7811526792919781
1853,-0.8618716156437779
1854,-0.09819360863900468
1855,-0.3145322162069147
1856,0.6636145780264182
1857,-0.21118431627698953
1858,-0.4688750790065265
1859,-0.7665967128512168
1860,-0.4423562290217434
1861,-0.7901448488769988
1862,1.214545493833694
1863,1.084413929895911
1864,1.0849310361408533
1865,1.4614732811654734
1866,1.4233024964849446
1867,0.6505273453520026
1868,1.1058090261643936
1869,0.34257885115724873
1870,0.6985996004498898
1871,0.9070118282204153
1872,0.005363466850594591
1873,0.7832240297512668
1874,-0.4622080626461372
1875,0.3160490686827422
1876,0.32085127140659253
1877,0.38380694704866297
1878,0.40553687912453484
1879,-0.7198168728739592
1880,-0.7603619428408521
1881,0.7657234024874957
1882,0.8734527228693849
1883,0.22443786280690387
1884,0.3794069661453006
1885,0.7150830117827409
1886,1.1401875262097008
1887,0.33290781582643064
1888,0.9848497282950772
1889,0.0014488355424451312
1890,-0.8439569837657424
1891,-0.6444515516858615
1892,-1.5052294166928228
1893,-0.7102946589951616
1894,-0.8187592016411472
1895,-0.5832304219528278
1896,-0.8919625826314383
1897,-1.0405845093138024
1898,-1.1755488385454709
1899,-0.31229214527174265
1900,-0.36079348747284273
1901,-0.052106352203472935
1902,-0.5327934530623464
1903,0.47690081433347864
1904,-0.5557748247536844
1905,0.34631108928869425
1906,-0.3334712283399323
1907,0.30755304507592574
1908,-1.2053211015789638
1909,-0.5395000831423165
1910,-0.8555247818702469
1911,0.5518079324819316
1912,1.4630952080371724
1913,-0.4946803672573271
1914,-2.3240418375607064
1915,1.1980448166996895
1916,-2.0496820303584697
1917,0.8017634946524593
1918,-0.6272583865462209
1919,-0.014484572563810975
1920,-0.26195571240168686
1921,1.7936404110506199
1922,1.3724716728771023
1923,0.6502418419326175
1924,0.6529987487763386
1925,0.3698262894567143
1926,1.7226619890306432
1927,-0.6812477243500996
1928,-0.2901774614124286
1929,-0.9560417154598266
1930,-0.8438372856469382
1931,-0.5477700418235785
1932,-0.7004990711202966
1933,-0.0044719175082389255
1934,0.018795051711775684
1935,-0.023052612765415405
1936,0.1863636168406252
1937,0.2853687934515125
1938,-0.06545790065659927
1939,0.8762907343939125
1940,0.22970730000332817
1941,-0.06307452401938915
1942,0.23986349715380045
1943,0.5069606605168188
1944,1.7326936891623532
1945,1.9174101165643733
1946,-0.5498260086761679
1947,1.0405336909333838
1948,-0.046762871602973495
1949,0.8116390516611994
1950,0.11014907502116508
1951,0.8073370167216418
1952,0.4712835205148178
1953,0.010935767945132048
1954,0.20428377820200916
1955,-0.6271287415228473
1956,1.3325943908296143
1957,-0.31056908672322675
1958,1.232044378499326
1959,-0.4624825211149576
1960,-1.0897364434466823
1961,-0.8911567912984942
1962,-1.405174148802145
1963,-1.3262063246856437
1964,-1.1509925884471617
1965,-0.45381437912682016
1966,-0.5563439293576297
1967,1.2347878624515283
1968,1.9571894565792576
1969,1.85342831497563
1970,1.971603258620611
1971,2.2420912951292484
1972,1.7282387774610921
1973,1.1439322898248623
1974,1.4676389777166987
1975,2.028012048085505
1976,1.096866262105537
1977,1.6869725652403766
1978,1.7007145708745657
1979,1.4984729364934541
1980,0.3852454675820676
1981,1.4839979069087192
1982,0.5726356267846834
1983,0.44719669266536044
1984,-0.04466667764368018
1985,0.5407799181809212
1986,0.44703782610255216
1987,0.12437867830222223
1988,0.06523743182214009
1989,0.2487271018120068
1990,0.4508462864050011
1991,0.6179099956258574
1992,0.4251251103566118
1993,-0.024805721754370465
1994,0.5733203255634269
1995,0.11919753396545923
1996,0.9325268393306384
1997,1.2620374951297677
1998,1.357217305549037
1999,0.907577443824803
2000,1.4043552542729383
2001,1.08050019209206
2002,0.7010780081910818
2003,0.9300832949635925
2004,1.1532528597237608
2005,0.6076748535525066
2006,0.6160770894350321
2007,0.8976522703332082
2008,0.43586230795420267
2009,0.4083341924308399
2010,0.27400624054560685
2011,-0.4219097787762527
2012,0.011659093710296262
2013,0.08986406000477504
2014,0.1563032162997317
2015,0.4012902117289252
2016,0.31606660225901845
2017,0.3510582663842349
2018,-0.9134229333094565
2019,-0.6737507926692532
2020,-1.216856356169931
2021,-1.3587921847196769
2022,0.150049815913711
2023,-0.35768343445572115
2024,0.8494545376338403
2025,1.7348831870794974
2026,0.0012911401052021002
2027,-0.19879747731643105
2028,-0.28832925819184774
2029,-0.06549044122237146
2030,0.9756502553130272
2031,0.5825957240516373
2032,0.8147380811426798
2033,0.802406030729496
2034,-0.07965803172628064
2035,0.5375443886574459
2036,0.368396907939169
2037,0.45323915942281096
2038,1.3401036859178703
2039,0.6203058173515603
2040,1.2969703605419955
2041,1.1868408719128105
2042,0.3845414766196259
2043,-0.08795167545563594
2044,-0.18550088638292406
2045,0.45479867586846595
2046,-0.42865765743671225
2047,-0.5163594223064417
2048,-0.6218646722680775
2049,-0.5285419925583024
2050,0.07441502706689632
2051,-1.2365577869720406
2052,-0.8318291003223093
2053,-0.4281608305344202
2054,-1.5933243474900336
2055,-0.24300337845387215
2056,-0.3432227122715932
2057,-1.0536753802144188
2058,0.5761504032246746
2059,-0.6189355599987574
2060,-0.15682836126373162
2061,0.03445686448344995
2062,-0.7851745870599822
2063,-0.9124969422097812
2064,-0.5409488841461936
2065,-0.9164733699299912
2066,-0.04771569732179377
2067,-0.6993520179999588
2068,-0.4527670851781842
2069,-1.7381990895599677
2070,-1.0862865378397322
2071,-1.5149084969758788
2072,-0.5770696892995762
2073,-0.6225842224621505
2074,0.13155425411358243
2075,-0.46370559586234295
2076,-1.0725919802008244
2077,-0.20317735014819285
2078,-0.8125721201986247
2079,-0.6187892264378833
2080,-0.8428200290771064
2081,-0.8667650964742544
2082,-0.6793285523523344
2083,-0.4642022961689981
2084,-1.1437600764009597
2085,-1.0082907926649982
2086,-0.9425377969695837
2087,-0.8241468040327701
2088,-1.3759487761793072
2089,-2.0629203736436454
2090,-0.6912202781875536
2091,-0.9823336397669227
2092,-0.8790704127562216
2093,-0.8023835875007813
2094,-1.028734226434711
2095,-0.37279758936110524
2096,-1.8481320904496976
2097,-1.330501506036068
2098,-0.3687782967147393
2099,-2.771995283798866
2100,-1.6572208969652547
2101,-0.9469476321961116
2102,-0.5723039734140898
2103,-1.267383243629469
2104,-0.46992044661686777
2105,-0.64016181025836
2106,-2.187677284101656
2107,0.3403155291608553
2108,-0.9283633590799043
2109,-1.1363099901778986
2110,-0.9115185524785011
2111,-0.4785549739626644
2112,-0.5137128797343626
2113,-0.8944822232846557
2114,-0.8917159481245724
2115,-0.14188888318230314
2116,-0.983135759019615
2117,-0.34725722776072354
2118,-0.7473511360924516
2119,-1.0959487890252861
2120,-0.9125731131639911
2121,-1.1286950836703835
2122,-1.006536970786543
2123,-1.7023043413097723
2124,-0.17608153988971179
2125,-0.6547960071002983
2126,-0.40864258695434047
2127,-0.2811131771402046
2128,-0.6149205184728994
2129,-1.5306616182986985
2130,-0.47926153301643065
2131,-0.42319186652179897
2132,-0.9400054835095284
2133,-0.9721597078554256
2134,-0.9266375825942103
2135,-1.529811963757549
2136,-1.8038305882189969
2137,-1.1299109706861754
2138,-0.5337246662613465
2139,-0.3746449004406353
2140,-0.5365378188194305
2141,-0.3488916505704275
2142,-0.8015637367892199
2143,-0.4236485411100368
2144,-1.0234544770866796
2145,-0.550460280855226
2146,-0.04993162458703523
2147,-0.397849563415918
2148,-0.5742532815549078
2149,-0.5018729112413493
2150,0.7668520976620117
2151,-1.0489038762262883
2152,-0.0730967906676421
2153,-0.2781335891486937
2154,-1.2545312942073195
2155,-0.559704629397552
2156,0.675226391001558
2157,0.6030761575115088
2158,0.7844941602844846
2159,0.5391163916420085
2160,0.06955626613918714
2161,0.7541669949340495
2162,1.8468879638590412
2163,1.4900712660168804
2164,0.9270065366884044
2165,0.47610448489524965
2166,-0.3450569471349737
2167,0.4111111160620431
2168,0.3585170800103438
2169,0.27319456908185896
2170,0.5725084325861943
2171,-0.316738246921515
2172,-0.6286903137430366
2173,0.04690615959882087
2174,0.5761255384303475
2175,1.2245776436977485
2176,1.3414261474572389
2177,0.7279223508227208
2178,0.5109088435977982
2179,-0.58161266215354
2180,0.3877682112565718
2181,0.246352755631812
2182,0.6461722876919177
2183,0.29077219836108703
2184,-0.9695978017141105
2185,-0.9911218635640537
2186,-0.4928640443733722
2187,-0.30306134816960834
2188,-0.3084576566681866
2189,0.9599676651944039
2190,-1.7104680809128696
2191,-1.7431796672498707
2192,-1.672930616490779
2193,-1.3561201618918397
2194,-1.1971951883668523
2195,-1.3208729519001983
2196,-1.2169066333162728
2197,-1.0291940422790469
2198,-0.24433761123785527
2199,0.0016962077603125784
2200,-0.39399766776275214
2201,-0.5625010313669989
2202,0.5057927773924493
2203,-0.5849791616082426
2204,0.10137257929224497
2205,-0.9941294489823069
2206,-0.6442160930321726
2207,0.5630527822357034
2208,1.0022503607310758
2209,0.618817817394941
2210,-1.0086022128747125
2211,-0.9895944991527662
2212,-1.0315290468286031
2213,-1.1728752409622252
2214,-0.6256386756035783
2215,-1.4253637291391228
2216,-0.45320944680103925
2217,-2.1861112553811077
2218,-1.6517848234420898
2219,-2.0205774429693015
2220,-2.058892222504192
2221,1.2034939040883101
2222,0.8599509665274405
2223,1.1189822985247
2224,0.4181632232304071
2225,-0.6557617675997046
2226,0.020026625898883238
2227,0.24664941929686568
2228,0.9926963306654135
2229,0.901554576057504
2230,-0.25122588740446516
2231,0.46217652527018926
2232,0.05961585277876674
2233,0.05005277371246312
2234,0.7532279051638842
2235,0.4761665969305973
2236,0.9537571798196589
2237,1.2870005478160036
2238,0.29619055865821786
2239,-1.1985259356012348
2240,-0.3516978051613382
2241,-0.32881082757885866
2242,-0.8555661286370768
2243,-0.7411349383634352
2244,-1.2210665156298792
2245,-1.3492767711800842
2246,-0.5122970927634225
2247,-1.0863052583937645
2248,-0.9048036377860798
2249,-1.004056643262197
2250,-0.8230498349786136
2251,-0.8841458049870254
2252,0.01542209501374072
2253,-0.23968402767065516
2254,0.24994902608016212
2255,0.15773803736251238
2256,0.07933753592844009
2257,0.3088384798438893
2258,-0.19550300000297346
2259,0.055153888861804806
2260,-0.4321421964835951
2261,0.27523337188057767
2262,0.45010703792035023
2263,1.7126796370913602
2264,2.4417507416820134
2265,0.025081677508307247
2266,1.3486258942118772
2267,1.6576697852084485
2268,1.917281249142924
2269,-0.3092326751935337
2270,0.2625110610624962
2271,0.5149578078611838
2272,0.36598306009908355
2273,-0.19632855592329587
2274,0.0634733535302565
2275,-0.2778548830934181
2276,0.17086074973480245
2277,0.07346366721469164
2278,-0.3752495608813869
2279,-0.9299090729811518
2280,-1.0075560055043364
2281,-0.08740096194458626
2282,0.10711720621159318
2283,-1.1821969245630568
2284,-1.0198391395028847
2285,-0.5543884301903161
2286,-0.8450741348101642
2287,1.607491638354275
2288,1.032575843852409
2289,1.7889633779974121
2290,2.1608908534385303
2291,1.4575963292567193
2292,2.1004995188863327
2293,2.205802446506989
2294,1.9686838518433634
2295,2.1526778987923803
2296,1.2164000985563748
2297,1.5321549403114938
2298,1.495708565434419
2299,1.62360683207326
2300,1.5478372628347568
2301,1.3154360061559718
2302,0.7715019065104542
2303,0.9351762585996974
2304,0.8798854650084996
2305,0.1964515043308576
2306,0.16503061857126156
2307,0.280255512790777
2308,0.6650450467234437
2309,1.1545501897956345
2310,0.500848726921825
2311,0.3097338135740689
2312,-0.03000676440719507
2313,0.028211447291328958
2314,-0.05829753743412647
2315,0.07487510889557202
2316,0.2963448250554855
2317,0.20084074454438705
2318,0.11761833607867986
2319,0.12146751922725393
2320,0.12303588111353883
2321,0.8405550760206648
2322,0.06350463133814124
2323,0.14386005942338237
2324,0.13148177655344334
2325,0.45106217914173374
2326,0.06052594750385878
2327,0.3987615890670233
2328,0.5720205165429741
2329,0.242005932798752
2330,0.03072111826941351
2331,1.5655096172977454
2332,1.8600181644056135
2333,1.3953427012923625
2334,0.8410406903692983
2335,1.088247324718231
2336,1.2253949255493273
2337,0.3058368084356656
2338,1.0299125832062028
2339,0.619053604372848
2340,1.6963675473641149
2341,0.4842923178893116
2342,0.7773403739762974
2343,0.5992793679273619
2344,0.5320856863234407
2345,0.7110288163125812
2346,0.5938758510783118
2347,0.28455528820722714
2348,0.8076121433672035
2349,0.03110348756106455
2350,1.3462209767113082
2351,0.8619359340907904
2352,0.8804334123467502
2353,0.6966824235945475
2354,-0.6465885557388049
2355,-0.3504416987253544
2356,-0.35693119128444395
2357,0.23248358935228192
2358,0.29555433100967327
2359,-0.7681564331333157
2360,-1.034588515647986
2361,-0.43823629766928796
2362,0.9245992262944596
2363,-0.6594394651706728
2364,-0.2889943987595021
2365,0.503621117343456
2366,0.322303835790737
2367,0.6411846882286536
2368,0.44588700156139255
2369,0.5243845965446543
2370,-0.08727072614935438
2371,-0.09804500020633648
2372,0.1665557681111931
2373,1.0858688114445334
2374,1.3789438991556418
2375,0.8093572360910546
2376,1.1720938695564982
2377,1.5270784950120464
2378,-0.3869737914487433
2379,0.207123733106379
2380,-0.4632407923800431
2381,-0.09732951921748449
2382,0.34192707660281957
2383,0.39842208840308513
2384,0.8514811898436558
2385,-0.21058615625019506
2386,-0.7045568634450866
2387,-0.695569559648856
2388,-1.1868940281247702
2389,-0.8237178607773301
2390,-0.3875870177788937
2391,-0.5772773195579897
2392,-1.0155775771759434
2393,-0.17268164681311907
2394,-0.5421709512186381
2395,0.2975214264638107
2396,-0.48291445554923057
2397,0.5129187372456405
2398,-0.8344188988696448
2399,-2.4768982156819597
2400,-2.4868459492950894
2401,-1.0089413380183574
2402,-0.6085710477998819
2403,-0.5322732715029032
2404,-0.3618146329620894
2405,-0.2002881223189468
2406,-0.5829909661440071
2407,-0.8849101530635082
2408,-0.4009282175465353
2409,-0.9682235585075389
2410,-0.17937702251198406
2411,-0.9802831240588727
2412,-0.37654205840833965
2413,-0.6629302242241273
2414,-0.3918272278308256
2415,-0.7031697129318704
2416,-0.853169967439148
2417,-0.6426183956800324
2418,-0.6658830975916635
2419,-0.7874204434493596
2420,-0.9094207264167404
2421,-0.73140262586844
2422,-1.1454573880543246
2423,-0.9838864985733198
2424,-0.0999339233993449
2425,0.1461476960531823
2426,-0.7679669925747413
2427,-0.5172606053982967
2428,-0.04127783330805279
2429,-0.9902664152782359
2430,-0.796112391551124
2431,-1.1172622623668407
2432,-0.4597008597434315
2433,-0.5610507011066076
2434,-0.558125117800467
2435,-0.35756946866372663
2436,-1.1036938895861097
2437,-1.4222509340578773
2438,-0.9498941734958644
2439,-1.2988803819915935
2440,-0.8619495174373183
2441,-1.5691058797746165
2442,-1.491364336914019
2443,-0.8858746646493147
2444,-0.6170007669519652
2445,-1.7040368509835824
2446,-0.548585322411066
2447,0.18798278841195518
2448,-0.5547796338890892
2449,-1.0906361486654148
2450,-0.22038322397967341
2451,-0.8884911319947879
2452,0.3563391597425388
2453,-1.4058941934347164
2454,-0.7109839049299835
2455,-1.0661321217948907
2456,-0.6637491491763275
2457,-0.7979999145987922
2458,-0.8035089377389995
2459,-1.1066017943535034
2460,-0.34247078898622374
2461,-0.6115595940032633
2462,-0.5593631458231302
2463,-0.7122754007807058
2464,-0.06129339393356316
2465,-0.5711272333990276
2466,-1.1149548793004431
2467,-0.4853969633566678
2468,-1.803766833836765
2469,-1.9216258112734073
2470,0.26929502545141637
2471,0.31748516860698783
2472,-0.21521275442325788
2473,-1.051208268962262
2474,-1.60227673758508
2475,0.5960261628533605
2476,-0.9742107142784654
2477,-0.7567451484009452
2478,-0.23019151134260335
2479,-1.153508491290801
2480,-0.37883962882820493
2481,-0.911390390002265
2482,-0.8123047931965847
2483,-1.2673021339222348
2484,-0.9188617506760597
2485,-0.7544656298109804
2486,-0.36928896910944853
2487,-0.026103718233721294
2488,-0.23323863505887632
2489,-0.4252914325890058
2490,-0.5783706895611376
2491,-1.5978163011186677
2492,0.19271592023955772
2493,-0.3455923763604586
2494,-0.34541258321122986
2495,-1.6173557092429074
2496,0.7712695827262026
2497,-0.3574674803657263
2498,-1.2569708903673429
2499,-1.5788961707096103
2500,-0.9456283745575468
2501,-0.6867783545376347
2502,-0.5459684965799971
2503,-1.4077597121236631
2504,-0.2846568098186871
2505,0.5940512551332062
2506,0.836017288663331
2507,1.1424011246552546
2508,0.8506365006258119
2509,0.5700772178770843
2510,0.6491349611024735
2511,0.00595338060154843
2512,0.46764671392589374
2513,0.4662837088282729
2514,1.1078433229248856
2515,-0.37013539638285853
2516,-0.060070714668860256
2517,-0.3773994405488605
2518,-0.36952081511893625
2519,0.7168734064561886
2520,0.5276734624517725
2521,0.1605691460868264
2522,0.5965364409461842
2523,-1.0235068410579626
2524,-0.6318972507833481
2525,-0.4634548792134068
2526,-0.6038041922746649
2527,-0.908992567180644
2528,-0.8707392835410399
2529,-0.6530450362433938
2530,-0.9222770350447593
2531,0.7638681836801133
2532,0.6491365365266606
2533,0.2725693389045325
2534,0.6885286781901655
2535,1.242286206723838
2536,0.5931154125232012
2537,0.7279427096684126
2538,0.15280550819695204
2539,0.13913740623245519
2540,0.037820627456261545
2541,0.1298476945948416
2542,-0.10235612836839798
2543,-0.9503920225895967
2544,-1.0207375170054531
2545,-0.6564402647200565
2546,-0.8302775746755631
2547,-0.5409267381850952
2548,-0.21934900491063547
2549,-0.2096794380940281
2550,2.5293920098853175
2551,-0.46822052211230825
2552,-0.8747497042666436
2553,-1.8437842718472526
2554,-1.2839726780185219
2555,-1.0968357955297123
2556,-1.5234026350841814
2557,-1.3894468370851316
2558,-0.492510429130212
2559,-0.6683317418509037
2560,-0.40569668267641845
2561,-0.48526312909332764
2562,-0.4537182183901477
2563,-0.24800590781501902
2564,0.24239194149366455
2565,-0.4637068692972639
2566,-0.17258591330217007
2567,-0.5615920530839061
2568,0.31732550069919985
2569,0.5483047457673518
2570,-1.050360090568912
2571,0.01793343106662054
2572,-0.28208916944546614
2573,0.5799421295477573
2574,0.9426843501385707
2575,-0.6813289858458509
2576,-0.8005976273174537
2577,-0.38233341278808974
2578,-1.7416313806517563
2579,-2.135463124050362
2580,-1.0345132728113664
2581,-1.0186641411712447
2582,-0.8664658576774487
2583,1.0845801247950004
2584,-0.0463269820377776
2585,0.13066032307157077
2586,0.4401048332764811
2587,0.1927771698945824
2588,-0.43381367669841286
2589,-0.4299664222055232
2590,0.34592324425193927
2591,0.6574956201780293
2592,0.41618400187683496
2593,0.7531953382696497
2594,0.058379597820313975
2595,0.3348010895477188
2596,1.2876443053625615
2597,0.1262024622962683
2598,1.1135514433953984
2599,1.3453172267052396
2600,-0.5460251006225451
2601,-0.6087830805633484
2602,-1.7273641975613432
2603,-1.452804623949586
2604,-1.674763611501635
2605,-1.726898807382581
2606,-0.5160804712936545
2607,0.15231560772529906
2608,0.28062181952886583
2609,-0.09558314772453942
2610,-1.1624731216078534
2611,-0.7711945709461774
2612,-0.3535609654698345
2613,-0.8167400175572095
2614,-0.9914657507449028
2615,-0.352792797341001
2616,-0.49600246503424894
2617,-0.039263305638063815
2618,0.3053770102634719
2619,0.32501462831587824
2620,0.14205702792389832
2621,0.10468860337972824
2622,0.04354019099120742
2623,0.8343820405529322
2624,1.3434335873372136
2625,1.302992463920269
2626,-0.1399771491801392
2627,-0.07400880530068799
2628,2.2214361246811603
2629,2.490872274166382
2630,1.9014457646550285
2631,2.2671196272187304
2632,1.9803617455028049
2633,1.4032844104916393
2634,2.0119377120982542
2635,-0.3043563611263989
2636,0.0025203301628569097
2637,-0.09008031355198047
2638,0.9169897405247192
2639,0.20700188368399453
2640,-0.3746248687570063
2641,-1.2522480884639566
2642,0.19479011705268168
2643,-1.2406760972203283
2644,-0.7570567568589129
2645,-1.1396128472560276
2646,-1.4988140646999284
2647,-1.2936432828506612
2648,-0.6651312866224391
2649,-0.36588471141314605
2650,-0.6175015479119524
2651,-0.44228451770898025
2652,1.9110326086294973
2653,0.9644500297284611
2654,0.9031357072390688
2655,1.8329203085619472
2656,1.4619067286958924
2657,1.473446425800729
2658,1.252437475359281
2659,1.4038449133215192
2660,1.6010597477301578
2661,1.632034676399267
2662,1.7064059013797044
2663,1.237315950371216
2664,1.1063678690835062
2665,1.4559342356352358
2666,1.2113432778464488
2667,-0.08532959758673747
2668,0.05740615132472428
2669,0.0763050015172093
2670,1.0940573640031936
2671,0.15771357339310038
2672,0.24506665052212362
2673,0.32863569698495204
2674,0.32322417600214215
2675,-0.04857963013173113
2676,0.19739362253081047
2677,0.19934282033671835
2678,0.8241505694761457
2679,1.1084128299990343
2680,1.1907561432026192
2681,1.726387479275246
2682,1.4250407474617277
2683,2.165225209762119
2684,1.3539124911428284
2685,1.5256461790113023
2686,0.8090350893574714
2687,1.2102559158345074
2688,0.5223994348022301
2689,0.46548917058943756
2690,1.7421907993091221
2691,0.22802576976014463
2692,-0.5084315774533236
2693,0.25810788029755716
2694,-0.6537017050348434
2695,0.23289383625954285
2696,0.16534561406206172
2697,0.12122015289930177
2698,0.2627096785208989
2699,-0.03138856790762864
2700,-0.22019113333513135
2701,-0.35211563028131565
2702,-0.8985418820352
2703,-0.5552773052774749
2704,-0.6193786660828635
2705,-1.010327866021981
2706,-1.1693244218395178
2707,-0.7949827530369838
2708,-0.721227464814654
2709,-1.220650350074476
2710,-0.9039470848576369
2711,0.718396949222448
2712,1.6467436328952474
2713,-0.14443682755339643
2714,-0.3624547434728132
2715,-0.037824546331801864
2716,-0.38557540255818745
2717,0.16840225921866192
2718,0.5651125967557512
2719,-0.33366423857249305
2720,-0.04800548571771249
2721,-0.6406721148123209
2722,-0.24511352649351764
2723,-0.5500801102418396
2724,-0.7648024141258375
2725,-0.7950679123403412
2726,-0.4460385770027513
2727,0.02803684566824642
2728,0.1346569211725403
2729,-0.44177797690501913
2730,-0.4292155324814849
2731,-0.8448069581797765
2732,-0.7153499059534997
2733,-0.23245250121860028
2734,-0.45902407152802044
2735,-0.6193814268416753
2736,-0.560229072883381
2737,-0.9656135100396914
2738,-0.6283365793678521
2739,-0.196456671036545
2740,-0.5904514038759195
2741,-0.4771385704193162
2742,-0.2968348359809828
2743,-0.2880096578489406
2744,-0.3218106236589982
2745,-0.4792719194061499
2746,-0.6180564674053803
2747,-0.3181559094335219
2748,-0.7424676129202309
2749,-0.8831054601511579
2750,-0.7586742597786035
2751,-0.7265230668871421
2752,0.4988763786746537
2753,-0.4478792960099088
2754,0.4649376833362904
2755,-0.6612592403361964
2756,-1.4877184715568208
2757,-2.228920481465834
2758,-1.6796011195086458
2759,-0.17758283799478455
2760,-0.954095565869182
2761,-0.5704902183808929
2762,-0.5374553352738979
2763,0.04791529364138465
2764,-0.19268412630262327
2765,1.054789373460692
2766,-0.7151459343225378
2767,-1.436349337804877
2768,-0.7330156804070166
2769,-0.813507462275202
2770,-0.45739721912609943
2771,-1.125606330344486
2772,-1.0606284623844493
2773,-0.16640772272671278
2774,-0.49153758389864555
2775,-1.1023315244251224
2776,-0.39716643785751404
2777,-0.30774510903529867
2778,-1.0805635654841006
2779,-0.901180230343811
2780,-1.384600924347513
2781,-1.4900437521302177
2782,-1.513063815144179
2783,-1.4147366306874525
2784,-0.7863224965372406
2785,-0.6112638312549078
2786,-2.518886353297129
2787,-0.9317392617268776
2788,-2.114319443935252
2789,-0.028852317274070838
2790,-1.365405270180365
2791,-1.112115195729978
2792,-2.235721842789704
2793,-0.21029525961265566
2794,-1.41600111766489
2795,-0.9010538011910079
2796,-1.4295369182247701
2797,0.2747012642741578
2798,-1.2734135961600028
2799,-1.0287181982311961
2800,-2.1933780536759517
2801,-1.2969390287479494
2802,-0.5487569854515587
2803,-0.22200591085383423
2804,-0.44716846746910494
2805,-1.4394983224657993
2806,-2.0210877899529627
2807,-0.1517927543536643
2808,-0.4822180171254273
2809,-0.6561285115204263
2810,-0.7586467015270763
2811,-0.2657758116235359
2812,-0.25128835353709233
2813,-0.2552139824334107
2814,-0.3758765629902384
2815,-1.4231927316191295
2816,0.6869028687635041
2817,-0.2559263501093847
2818,-0.7152219615129316
2819,0.09310398747359212
2820,-0.6370971108467767
2821,-1.2120141076484758
2822,0.312808741673402
2823,1.269120223979663
2824,-0.13317313224835062
2825,-0.3724295519046384
2826,-0.7066830539889156
2827,-0.6652895081506752
2828,0.48350230968319907
2829,0.42333043506701507
2830,0.617139129060302
2831,0.03907509941615034
2832,0.7317394309734261
2833,1.209104199287169
2834,0.5391270689005314
2835,0.607355909833094
2836,0.2153043552626216
2837,-0.16303241992078626
2838,-0.42157848238272816
2839,0.04743510647061887
2840,0.2749161883685251
2841,0.3736574349712727
2842,0.6911614403492394
2843,-0.4632918494515306
2844,-0.14654961140477515
2845,-0.9097390617768857
2846,0.4355051933353674
2847,0.4334459217216343
2848,0.49139647005242254
2849,0.35406219165458463
2850,1.1553397864366197
2851,0.5944407775401893
2852,0.7082353903022662
2853,0.7369835835207091
2854,-0.5862681908557121
2855,0.2825057799755524
2856,0.34485728804396676
2857,0.21127168300846577
2858,0.2771034450264231
2859,-0.9934809056323644
2860,-0.6369804267403779
2861,-0.7695319787380717
2862,0.14986025668905945
2863,-0.7642988387435055
2864,0.7349813459366423
2865,-0.5281900786479448
2866,-0.3941223026418487
2867,-1.3611133322023043
2868,-1.3756311874115748
2869,-1.4027908582924775
2870,-0.7165742932470938
2871,-1.499126161858889
2872,-2.8214114913122943
2873,-1.2414387906246465
2874,-0.6945035204746822
2875,-0.9650247094751786
2876,-0.16645907358885387
2877,-0.37837980156822903
2878,-0.22198252671828947
2879,-0.5323113948747284
2880,-1.3092431516000915
2881,-0.4498395260787275
2882,-0.14523568017344654
2883,0.17755618921574595
2884,0.36372270094768705
2885,0.2456435187459014
2886,0.45716155560692806
2887,-1.3890365744701587
2888,-0.5563224779665584
2889,-2.6361420032279126
2890,-1.9341626575732531
2891,-0.6144626215026043
2892,-2.7474198845496645
2893,-1.3364825284900332
2894,-2.5774915344703353
2895,1.218983384168125
2896,1.0495178530321887
2897,0.35265979384043245
2898,-0.5201183040848012
2899,0.47558158539645495
2900,-0.22781166146814716
2901,0.46209830581252703
2902,0.002359028527454954
2903,1.4158088517330034
2904,1.5072803423569276
2905,-1.248016593105119
2906,0.28724522436502414
2907,-1.1087687809634632
2908,-0.767382747459046
2909,-0.3260123310559703
2910,-2.0445003881884727
2911,-1.7188513740724047
2912,-0.4856643098971438
2913,-1.76172962855225
2914,-1.9056770890236523
2915,-1.7059911947107969
2916,-1.7516723676852042
2917,-0.11506342527419944
2918,-0.9597368372855367
2919,0.4844775608348235
